71 16
林肯 -0.005453642 -0.001495822 0.03971366 0.061255988 -0.05921654 -0.047653824 0.055399854 0.05652928 -0.030964157 -0.025892658 0.045753855 -0.0065347115 -0.02678722 0.03472119 -0.04110786 -0.011571566
款 0.016441185 0.0046806782 -0.046279814 -0.055695564 0.04499108 0.029454483 0.054679826 0.0053200093 0.040838584 -0.023167077 -0.006063994 0.039869655 -0.046374746 -0.029661087 -0.055180874 -0.0064862594
t 0.05733961 -0.048209753 -0.0071741603 -0.007034691 0.04928279 -0.03986017 0.015106951 -0.028570699 -0.058865443 0.028671606 -0.05494225 -0.0238124 0.001188868 -0.00812129 -0.058003034 0.059200488
mkc 0.030096583 0.056821246 -0.04797741 0.030209813 -0.026111256 0.004000036 0.059490826 -0.027560132 0.028948244 -0.043361366 -0.021916756 0.060324285 -0.009457283 -0.0005693524 -0.030063352 -0.048272513
四驱 -0.010038225 0.014638914 -0.0020685582 0.037012808 -0.017881032 0.0130494945 0.03853943 0.052533574 -0.008905697 -0.05845079 0.027376713 0.004238067 0.04746387 -0.0066010584 -0.019562772 -0.054719325
领航员 -0.005953864 0.016698046 0.036713213 0.046375487 -0.03598987 0.010908046 0.042995803 -0.029514227 -0.01886491 0.041637987 0.01052504 0.0024958588 0.022337606 -0.0008768622 0.056628805 0.031229744
两驱 -0.056192204 -0.044941556 0.007835622 0.040930375 -0.05417379 0.02187093 0.035822082 0.036445387 0.0467881 -0.039106444 0.007065499 0.038780287 -0.017475965 -0.04018066 -0.0050425143 -0.052561525
大陆 -0.035927277 0.043368474 0.024290778 0.047822572 0.04204915 0.04598125 -0.018006332 -0.003180501 0.014997172 -0.029285757 0.052391473 -0.06039728 0.04329752 0.016162913 -0.034629617 0.02766673
进口 -0.011655675 0.04093424 0.06665109 -0.024192818 -0.0043780985 -0.037268862 0.032991003 0.017984334 0.04401926 0.036500625 0.060085498 0.06022569 0.05044239 -0.047141977 -0.06330029 -0.0025157987
航海家 -0.01986687 0.04867299 0.039464228 -0.008251518 0.009079378 0.010100659 0.053477414 -0.059493434 -0.0010077219 0.021134013 -0.0060752206 0.05385953 0.056857765 0.038702276 -0.007511582 0.04802486
两驱尊 -0.054458402 0.019047046 -0.02563154 -0.029261502 0.022121796 0.03243794 0.05591389 -0.03600374 0.046889946 0.040360145 -0.023398982 -0.05295508 0.03470684 0.038090315 -0.010243555 -0.041900862
vi -0.04492637 -0.01630814 0.03451461 -0.021045817 -0.058582664 0.02316815 0.035975672 -0.040041696 0.008169011 -0.013593041 0.00046360432 -0.060230657 0.01704107 -0.031852834 0.003127082 -0.010210325
尊耀版 0.0134172 -0.049656887 -0.0158656 0.017403165 0.03326699 -0.015417719 -0.056859817 0.02814351 0.00092657807 0.018998964 -0.042553294 -0.007884854 0.047890462 0.04472139 -0.024796983 0.016273012
尊雅版 -0.052348115 0.038438004 -0.028308745 -0.019471781 0.058340836 0.005339774 0.048568938 -0.03829523 0.03225911 0.061716817 -0.053181883 -0.031707976 -0.044086702 -0.03120674 -0.0247159 -0.053312548
v 0.049454793 -0.030435057 0.05370331 0.033432122 -0.04141358 0.0243038 0.036055043 -0.04636238 -0.04604262 -0.01588889 -0.053983007 -0.008908711 -0.0024235593 0.01947155 0.007653507 -0.00584915
总统 -0.03538028 0.01024988 -0.0033749375 0.04391743 0.02448008 0.0276682 0.012888698 -0.016576543 -0.026975792 -0.007153885 0.009133308 -0.015747711 -0.043783493 -0.05056045 -0.05971951 -0.0372805
享版 -0.0116358455 -0.02735707 -0.039218806 -0.02286825 0.026750714 -0.023767965 0.054562975 0.009563046 -0.045011092 0.05861109 0.047560643 0.0351335 -0.042611107 0.03528631 0.023622613 0.032289024
基本型 0.026255233 0.011592846 -0.017999485 0.053260736 0.05964008 0.022969734 -0.014540724 0.0008080544 0.007831992 -0.053500433 -0.051265955 -0.00059907464 0.008138174 -0.037214186 -0.031585682 -0.046151835
尊耀版国 0.051809624 0.0007247923 -0.027472906 0.036296025 0.057133034 -0.025735933 0.05162247 0.03335609 0.03691746 0.0030596321 0.051407527 -0.04335152 -0.051467557 0.057622187 -0.002278559 -0.01236658
系列 0.02832967 -0.025970347 0.018868813 0.044069182 0.037770517 -0.04740798 0.061453298 0.029261077 0.02503747 -0.039540727 0.05290578 -0.012683494 0.055244636 -0.03487429 -0.052556362 0.042426776
尊悦版国 0.010087017 -0.014096619 0.06047202 0.060077187 -0.06110287 0.015313832 0.041117616 0.0238183 0.012858671 0.002367965 0.0041380506 -0.023090748 -0.044463474 -0.014029656 0.022621222 0.055149894
享版国 0.05755683 -0.037866596 -0.05729959 0.062010653 0.021071773 0.031803668 0.04187704 -0.01721891 0.04614335 0.017135488 0.017953113 -0.01410068 -0.01909727 -0.015908768 0.024726432 0.00036735507
尊雅版国 -0.06005714 -0.060790468 -0.03703304 0.00016909043 0.012258539 0.058466136 0.038035348 -0.026779596 0.0020589323 0.030509135 0.04825158 -0.0061191428 0.027246106 -0.037410997 -0.0069964114 0.05052875
版 -0.015104241 -0.060901448 0.038325794 -0.023075987 -0.0077700126 0.061678395 -0.010028721 -0.029707396 -0.032817278 0.043120194 -0.03553569 0.014294638 -0.03233595 0.036654077 0.02457108 0.016216429
l -0.0095316265 -0.017348194 0.05703267 0.033028718 -0.013716749 -0.059604216 -0.045231864 -0.006134932 -0.004937552 -0.016505137 0.060594875 -0.0028468862 0.03694684 -0.047136314 -0.016456999 -0.034865573
concept -0.0448047 0.007188236 -0.043892838 -0.013263477 0.022915706 0.036154643 0.009283537 0.013161353 -0.025570182 0.044872273 -0.039601415 0.029351192 -0.051146384 0.011839388 -0.03236359 -0.026504727
飞行家 -0.019791948 0.035121564 0.03772923 -0.030584505 0.0046870983 -0.053588063 0.051131677 0.058324013 -0.01679117 0.0044625816 0.004784168 0.03481977 -0.05335315 0.0022880964 0.041396562 0.013669783
tv 0.006215416 -0.058904838 0.05628986 -0.037766453 -0.019173773 0.020983197 0.00044920447 0.0095321825 0.011416024 -0.043868467 -0.060679927 0.057433553 0.039363243 -0.04575025 0.018063689 0.00084525143
mkt 0.02942795 -0.045236994 0.026814908 0.028289232 0.062157955 -0.028373903 -0.0057939207 -0.045715727 -0.060555644 -0.057169918 -0.00637246 -0.04015737 0.030346727 -0.03966636 0.01375415 0.0046228403
mks -0.021505237 -0.00627949 0.06306006 0.057559647 -0.0278294 0.05666598 -0.033815905 0.037319258 -0.019277306 0.021090405 0.018919688 0.04336863 -0.014781595 0.05422585 0.0464912 -0.059833918
城市 -0.050465345 -0.048214886 0.019516641 -0.016681131 -0.043215152 -0.051073927 0.054359175 0.012489492 -0.058100957 -0.030534618 0.019498572 -0.029123085 0.033341236 -0.02758938 0.0148494495 -0.05043057
国 0.0385292 0.029765612 0.0059820563 0.019615056 -0.054633744 0.012960082 -0.002222354 -0.058227103 -0.058513395 -0.009170184 0.027909532 0.02411574 -0.04082836 -0.044255946 -0.03330381 -0.014642169
尊悦版 -0.04528365 -0.060232036 -0.016887879 -0.0522545 -0.037494738 -0.035495695 -0.013782184 -0.010890274 -0.055918477 -0.004636002 0.050725713 0.04862166 -0.045266 -0.023293937 0.018780835 -0.059754673
全驱 0.008277907 0.040268537 0.039163407 -0.05329777 -0.028570937 -0.05198506 0.0054489695 0.059004296 0.0380127 0.030656364 0.03184392 -0.019421944 0.060413245 -0.048840366 -0.048913162 -0.014629465
tecoboostawd -0.0050611896 -0.0203435 -0.0031014448 0.047265776 -0.0045123557 -0.010405869 0.018131206 -0.052219562 0.04914122 0.053088862 -0.059870042 0.015484521 0.06206152 -0.04826396 -0.044351622 -0.04842149
tmono 0.05173579 -0.0051884246 0.060025807 -0.04899375 0.022846801 0.015561895 0.0095926775 0.014858619 -0.046174996 -0.059234075 0.015007801 0.03947964 0.050565094 0.03375586 -0.008151221 0.051800862
限量 -0.059172228 0.02061835 0.004674288 0.02641975 0.04580479 -0.042836882 0.040195644 -0.059522357 -0.0044504614 -0.054850053 -0.03179782 0.059461687 -0.010875318 0.01614446 0.05301354 0.055848334
外交官 -0.05174201 -0.01928451 0.063346416 0.032889053 -0.010186348 -0.054692224 0.021248613 -0.041828975 0.051029444 -0.028364498 -0.006652246 0.007213421 -0.0010895449 0.005828868 0.036604855 -0.00033769157
座 -0.020633284 -0.009705475 0.038122542 0.010491015 -0.004466992 0.057962537 -0.028477233 -0.0049610417 0.05755917 0.041860722 0.009434631 -0.054977335 0.007341458 -0.015419098 0.05686939 0.0072713355
tawd 0.009291861 0.015053375 -0.011386893 -0.031161409 0.0013998897 -0.012618778 0.04128325 0.055914577 -0.0042313063 0.018580796 -0.038176466 0.010595157 -0.04320761 -0.054341264 -0.03691976 -0.05597012
型 0.045339428 -0.03640951 0.052341 -0.044948667 0.021356294 0.060357865 -0.047613677 -0.062070496 -0.026967155 -0.016918074 -0.0016813008 -0.055019557 -0.053816486 0.017103381 -0.05195079 -0.056709334
lecoboost -0.0146690635 -0.054009978 -0.043837782 -0.05247167 -0.0018329511 -0.028539361 0.041864485 0.009585261 -0.02089241 0.038015377 -0.0376164 -0.02880887 -0.045047484 -0.027346343 -0.01157645 0.040407732
概念 -0.017531542 0.030374706 0.04389564 -0.04602141 0.028469684 0.03808889 -0.017260289 0.041554008 0.038295645 -0.040559057 -0.04232384 0.015767572 -0.010081478 -0.038410313 0.058412693 -0.032161728
加长 -0.041371513 -0.0014813866 -0.015570275 0.003720453 -0.022090541 -0.0030293325 -0.0017898645 0.005119974 0.051332258 -0.03642058 -0.010574466 0.035379365 0.051327225 -0.02897246 0.05433405 0.05154318
礼宾 -0.027980773 0.0014330507 0.027769642 -0.023903752 -0.03475721 -0.04097232 -0.0021217493 -0.0018734057 0.02797867 -0.015933475 -0.0012001673 0.01595863 0.030616142 -0.0010891946 -0.041034203 -0.057943452
车 -2.8495684e-05 0.041136377 0.010229241 -0.055388436 -0.049675282 0.040663876 -0.021697704 0.039206266 -0.041631427 0.05247924 -0.040808056 0.020919917 -0.0063788136 -0.043243177 -0.021813845 -0.0073145255
signature -0.03425806 -0.007802111 -0.046457 0.016966242 0.056563422 -0.0151381735 -0.0050104302 0.021935562 0.054255217 -0.037379213 -0.04309574 -0.018014712 0.057413485 0.0049788603 -0.055069257 -0.009052285
monowhite 0.058842927 -0.047720198 -0.032193027 0.059102252 -0.056363583 0.02342278 0.0065671504 0.041613393 0.05213548 -0.017978603 -0.02489805 0.056240637 0.013188819 0.03792339 -0.060611103 0.05978778
mkx -0.008543314 -0.03799469 0.01901867 -0.0026811159 0.029450621 -0.014276909 -0.025050847 0.014075026 0.05220258 -0.031251047 0.016671503 -0.049603086 -0.04232739 -0.0031586967 -0.055421226 0.017511895
lecoboostawd 0.009884219 -0.014630453 0.031498373 0.061042525 0.052937448 -0.011802355 0.013673264 -0.02514119 -0.051428728 0.039237745 -0.012240303 -0.0038675054 -0.011187981 -0.028626021 0.024801504 -0.026743323
c -0.06006515 0.05558534 0.0266242 0.05814863 0.04148934 0.017989958 0.06260742 -0.027710998 -0.042337477 0.02615307 0.023223933 -0.034940086 0.06085144 -0.022809686 0.058695085 0.005231558
混动版 -0.04005675 -0.012711372 -0.044498704 -0.017828451 0.0064056623 0.05865237 0.06140022 -0.041017123 0.021972891 0.013882777 -0.015723884 -0.056768082 0.0066102264 -0.05250402 0.037478786 -0.036448427
zephyr 0.03450435 0.061394982 -0.00043021765 0.028715182 -0.011305426 0.045907963 0.025839675 -0.056430254 -0.014870662 0.022518955 -0.0006242203 -0.0070606037 -0.0064360467 -0.0108543215 0.0029356554 0.026030652
blacklabelconcept -0.026557343 -0.023967268 -0.00038089056 0.0016344277 -0.0010218327 -0.029852802 0.026863677 -0.013527746 0.013173023 0.0041511743 0.0373514 -0.042771477 -0.04266328 -0.027978074 0.05907607 -0.009972636
tl -0.059215806 -0.004146816 -0.026128393 0.038826864 -0.060278874 0.017416315 -0.054948457 0.007795201 0.037755758 0.04578229 -0.047751863 -0.037183464 -0.042410485 -0.05082332 -0.06129323 -0.013436555
lawd -0.005216755 -0.04551877 0.042348802 0.0070680045 0.036515772 0.009282556 0.00547305 -0.046043888 -0.0135711115 0.027002847 -0.031946313 0.0071937125 0.017789962 -0.009896023 0.06165293 0.05206493
一号 0.015152785 0.044250507 0.03729663 -0.03459023 -0.032216456 -0.041816287 -0.047248114 0.051892325 -0.012227621 -0.042986076 -0.025952792 0.03253302 -0.017861597 -0.024007715 0.009178264 -0.017261561
markii -0.009902254 0.0067155734 -0.018612154 0.053245515 0.024443343 -0.062242895 0.0391225 -0.04221409 0.004808955 0.027526468 -0.031896092 -0.013191685 0.050596744 -0.026523702 -0.04772663 0.057861954
潜航 -0.013733036 -0.02988272 0.054238837 0.027320327 0.027007291 0.057860676 -0.050938535 0.032661993 0.0129543785 0.026025869 0.010555794 0.028570062 0.028077388 0.037308294 -0.0212833 -0.02868574
限量版 -0.0028630053 0.015579871 -0.019721577 0.03819802 0.026095128 0.048248924 0.017502861 0.051309884 -0.008596151 0.050218694 0.02347316 -0.05019929 -0.024606885 -0.016049303 0.029589472 -0.005640772
尊耀 -0.018004179 0.04858835 0.059612833 -0.009169809 -0.032506365 -0.0299938 -0.027876232 -0.05997304 0.008683867 -0.026776148 0.015857777 0.035594076 -0.024986979 -0.06084076 0.007951944 -0.04196702
monoblack 0.015073025 -0.02436813 0.046522036 0.0055397633 0.021932725 -0.018132957 -0.0067396075 0.04785825 0.009122747 -0.037205666 -0.04884908 0.008714924 0.041018795 0.03317835 -0.058857013 0.05387095
美国版 0.025105534 0.046425465 0.06160096 -0.045100186 -0.056591347 0.036261983 0.059789293 0.022018528 0.04430852 -0.010097755 0.049681034 -0.059119944 -0.05005039 -0.041878182 -0.025742976 0.03115848
长轴 -0.024188528 -0.052486155 0.054190774 -0.022245267 0.053845946 -0.030898951 0.027634662 0.031016296 0.015512951 -0.018014759 0.01784501 -0.050975423 -0.016997155 -0.017642148 0.043267738 -0.021877538
插电式 -0.041709557 0.02690493 -0.0010796428 -0.0216838 0.04287711 0.023588037 -0.021460338 0.0052545886 0.057432268 0.047987696 0.03977489 0.029976081 0.015153402 -0.0129008265 -0.041827958 -0.0021801747
高性能 -0.010530124 -0.004086581 -0.036050655 0.04791746 -0.04160209 -0.04631673 -0.012726613 -0.008660852 -0.047321744 0.0036205174 -0.033253253 -0.0068639047 -0.04526681 0.010080294 0.017482176 -0.00039056467
新能源 -0.03439 -0.010945439 0.04604236 0.023894181 -0.055752445 -0.022028826 0.01721901 0.013897817 -0.05878182 0.028157104 -0.054062136 -0.045378797 0.022133462 -0.023146236 0.0206681 0.055426404
modelkb -0.022481935 0.058071747 0.011634057 0.061945073 0.035516966 -0.057461724 -0.019506678 0.041001014 0.035159394 0.054072306 0.043346707 0.050649673 -0.061202478 0.02620731 -0.03229061 0.021795083
modelk 0.037766125 0.027201548 0.04777885 0.009809388 -0.008010705 0.03584372 -0.034177784 0.0005700399 0.059126142 -0.0347023 0.023968963 -0.050628092 0.06123654 0.05059828 0.0072506913 0.0318174
全驱尊 0.008673119 -0.04056837 -0.0079657575 0.040740125 -0.02900706 -0.025116283 0.032121465 0.01698244 -0.011436378 -0.018179653 0.037483726 -0.03540441 -0.019982193 -0.041115876 -0.027276983 -0.05371757
markv -0.027931651 -0.05323316 0.009037809 -0.05374367 -0.06205209 -0.051444765 -0.042178478 0.041744646 0.02350648 0.002136411 -0.018538859 -0.04647834 0.0034143042 0.0029914195 0.0010608181 0.005343976
